%YAML:1.0
my_svm: !!opencv-ml-svm
   svm_type: C_SVC
   kernel: { type:LINEAR }
   C: 1.2500000000000000e+01
   term_criteria: { epsilon:2.2204460492503131e-16, iterations:10500 }
   var_all: 9
   var_count: 9
   class_count: 7
   class_labels: !!opencv-matrix
      rows: 1
      cols: 7
      dt: i
      data: [ 0, 1, 2, 3, 4, 5, 6 ]
   sv_total: 21
   support_vectors:
      - [ -1.00069312e-18, 1.00069312e-18, -1.00069312e-18,
          1.00069312e-18, -1.00069312e-18, 1.00069312e-18,
          -1.00069312e-18, 1.00069312e-18, -1.00069312e-18 ]
      - [ -2.23338299e+14, 5.70701345e+18, -3.94371613e+26,
          -3.34832362e+37, -2.23338299e+14, 1.45017489e+18,
          4.25647752e+18, 5.70701345e+18, 4.25647752e+18 ]
      - [ -2.27402828e-18, -1.44245280e-19, -2.34400342e-18,
          -2.24815024e-19, -2.42352070e-18, -2.42837196e-19,
          -2.44684575e-18, -2.58739123e-19, -2.46699008e-18 ]
      - [ -4.16549840e+32, -1.40101670e+22, -6.02772203e+31,
          -3.92691717e+30, -9.13890722e+29, -5.92748128e+31,
          -7.82817561e+23, -9.52458455e+32, -4.51430544e+29 ]
      - [ -2.11142144e+32, -2.40057425e+32, -2.11127792e+32,
          8.51295503e+18, -1.47967445e+34, -2.39581575e+29,
          -1.45336153e+28, -3.30179623e+33, -6.17759611e+34 ]
      - [ -6.79469110e+21, -1.47964635e+34, -5.76750919e+22,
          -1.26961608e+34, -1.47964771e+34, -2.31283061e+32,
          -8.82918097e+23, -2.41761727e+35, -5.23147609e+31 ]
      - [ -2.23338299e+14, 5.70701345e+18, -3.94371613e+26,
          -3.34832362e+37, -2.23338299e+14, 1.45017489e+18,
          4.25647752e+18, 5.70712670e+18, 4.25647752e+18 ]
      - [ -5.15825572e+14, -1.06772887e+15, -5.44172356e+14,
          -1.10681307e+15, -5.76384611e+14, -1.12270445e+15,
          -5.85833539e+14, -8.25922211e+14, -5.93993977e+14 ]
      - [ -1.73730880e+32, 8.51295503e+18, -6.02772203e+31,
          -3.70120135e+30, -9.13697899e+29, -3.45688832e+30,
          4.25647752e+18, -9.52458455e+32, -2.25714762e+29 ]
      - [ -2.11127676e+32, 8.51291710e+18, -2.11127792e+32,
          8.51295503e+18, -2.81352324e+29, -2.39581575e+29,
          -1.45336153e+28, -3.30179623e+33, -5.58216033e+31 ]
      - [ -3.39947378e+21, -1.47964635e+34, -5.76836037e+22,
          -1.26961608e+34, 4.25643244e+18, -2.36319327e+29,
          -3.39947378e+21, -2.41761727e+35, -5.23002248e+31 ]
      - [ -2.92488682e+14, -5.70815805e+18, 3.94371613e+26,
          3.34832362e+37, -3.53047285e+14, -1.45133721e+18,
          -4.25706328e+18, -5.70819928e+18, -4.25707153e+18 ]
      - [ -1.29571402e+32, -8.47870857e-03, -4.49553670e+31,
          3.34832311e+37, -9.13697899e+29, -3.45688832e+30,
          -1.55963617e+36, -9.52458377e+32, -1.68341863e+29 ]
      - [ 4.25670099e+18, -4.10619375e+04, -2.11127327e+32,
          3.34832362e+37, -5.86591612e+25, -1.23890019e-37,
          -1.45336153e+28, -3.30179623e+33, -1.41420651e+22 ]
      - [ -6.80320346e+21, -1.07401473e+26, 3.94313912e+26,
          3.34705394e+37, -1.45836854e+28, -2.31268534e+32,
          -8.79527139e+23, -6.66438750e+05, -2.14727549e+20 ]
      - [ -4.16549840e+32, -1.40101659e+22, -6.02772203e+31,
          -3.92691717e+30, -9.13890722e+29, -5.92748128e+31,
          -7.82817561e+23, -9.52458455e+32, -4.51430544e+29 ]
      - [ -2.11142144e+32, -2.40057425e+32, -2.11127792e+32,
          1.27712707e+19, -1.47967445e+34, -2.39581575e+29,
          -1.45336153e+28, -3.30179623e+33, -6.17759611e+34 ]
      - [ -6.79894643e+21, -1.47964635e+34, -5.76793478e+22,
          -1.26961608e+34, -6.88397354e+28, -2.31283061e+32,
          -8.82922348e+23, -2.41761727e+35, -5.23002248e+31 ]
      - [ 2.05407677e+32, -2.40057425e+32, -1.50850566e+32,
          3.92691717e+30, -1.47958309e+34, 5.90352328e+31,
          -1.45328326e+28, -2.34933769e+33, -6.17755105e+34 ]
      - [ 4.16549840e+32, -1.47964635e+34, 6.02772203e+31,
          -1.26922340e+34, -1.47955635e+34, -1.75465138e+32,
          -1.00100482e+23, 9.52458377e+32, -5.18490392e+31 ]
      - [ 2.11142144e+32, -1.45564058e+34, 2.11127792e+32,
          -1.26961608e+34, 2.66768636e+29, -2.31043481e+32,
          1.45327322e+28, -2.38459933e+35, 6.17236458e+34 ]
   decision_functions:
      -
         sv_count: 1
         rho: 0.
         alpha: [ 1. ]
         index: [ 0 ]
      -
         sv_count: 1
         rho: -2.6488083056491181e+20
         alpha: [ 1. ]
         index: [ 1 ]
      -
         sv_count: 1
         rho: 0.
         alpha: [ 1. ]
         index: [ 2 ]
      -
         sv_count: 1
         rho: -8.5070585867350590e+36
         alpha: [ 1. ]
         index: [ 3 ]
      -
         sv_count: 1
         rho: -4.2535292933675295e+36
         alpha: [ 1. ]
         index: [ 4 ]
      -
         sv_count: 1
         rho: -8.5070429922823959e+36
         alpha: [ 1. ]
         index: [ 5 ]
      -
         sv_count: 1
         rho: -5.0000000000000000e-01
         alpha: [ 1. ]
         index: [ 6 ]
      -
         sv_count: 1
         rho: -1.
         alpha: [ 1. ]
         index: [ 7 ]
      -
         sv_count: 1
         rho: -1.0000000000044400e+00
         alpha: [ 1. ]
         index: [ 8 ]
      -
         sv_count: 1
         rho: -1.0000000000150042e+00
         alpha: [ 1. ]
         index: [ 9 ]
      -
         sv_count: 1
         rho: -1.0000000010936123e+00
         alpha: [ 1. ]
         index: [ 10 ]
      -
         sv_count: 1
         rho: -1.4800955270832220e+20
         alpha: [ 1. ]
         index: [ 11 ]
      -
         sv_count: 1
         rho: -3.1723532644986140e+36
         alpha: [ 1. ]
         index: [ 12 ]
      -
         sv_count: 1
         rho: -9.9999971850918845e-01
         alpha: [ 1. ]
         index: [ 13 ]
      -
         sv_count: 1
         rho: -2.1267646430229157e+36
         alpha: [ 1. ]
         index: [ 14 ]
      -
         sv_count: 1
         rho: -8.5070585867350590e+36
         alpha: [ 1. ]
         index: [ 15 ]
      -
         sv_count: 1
         rho: -4.2535292933675295e+36
         alpha: [ 1. ]
         index: [ 16 ]
      -
         sv_count: 1
         rho: -8.5070429898423492e+36
         alpha: [ 1. ]
         index: [ 17 ]
      -
         sv_count: 1
         rho: 0.
         alpha: [ 1. ]
         index: [ 18 ]
      -
         sv_count: 1
         rho: 0.
         alpha: [ 1. ]
         index: [ 19 ]
      -
         sv_count: 1
         rho: 0.
         alpha: [ 1. ]
         index: [ 20 ]
